-0.089683
-0.219157
0.078369
-0.106457
-0.084189
-0.041402
-0.105955
-0.015246
-0.113134
-0.073994
-0.012664
-0.054923
0.071840
0.214286
0.148039
0.065515
0.100559
0.100569
0.010142
0.056378
-0.054535
0.143784
0.114310
-0.107955
-0.062072
0.123035
-0.073385
0.133496
-0.145443
-0.153533
-0.176054
-0.225471
-0.198043
0.148148
-0.144606
-0.062042
-0.082199
0.175987
0.187952
0.074505
0.043005
-0.083297
0.191311
0.187441
0.095602
0.020180
0.131606
-0.134441
0.049756
-0.010130
-0.029558
0.126315
-0.087522
0.043284
0.068291
-0.090931
-0.017922
-0.039869
0.065854
0.008173
-0.042981
-0.033962
0.123766
-0.095959
0.165385
-0.166088
0.198510
0.139090
0.141658
0.019206
-0.117968
0.156837
0.147338
0.110183
-0.171461
-0.099485
0.097710
0.036740
-0.102180
0.145151
0.010705
-0.002715
0.140991
0.122691
-0.041259
-0.064168
0.111919
-0.051002
0.199213
0.122411
-0.114439
0.016613
0.121996
0.189149
-0.172121
-0.051485
0.056747
-0.011815
0.120751
-0.067427
0.053329
0.139166
-0.062883
0.108842
0.033481
0.101939
-0.038192
0.089873
0.053305
-0.139594
-0.119724
-0.120862
0.082526
0.103873
-0.093409
-0.115550
-0.116525
-0.096102
-0.052481
0.111217
-0.085673
-0.020293
-0.085125
-0.165163
0.039371
0.052444
0.112789
-0.059699
-0.065840
-0.002947
0.125204
-0.082934
-0.142707
0.061543
-0.002814
0.228899
0.152381
-0.119536
0.151501
0.040702
-0.010442
-0.057626
-0.044846
0.156025
0.072084
-0.020455
0.075286
-0.147691
-0.212818
0.158507
0.008656
0.101482
0.036490
-0.122629
-0.167892
0.213496
-0.124299
-0.132111
-0.151919
0.076078
0.119291
-0.103518
0.005436
0.043416
-0.062750
-0.167180
0.128538
-0.108709
-0.093075
0.142027
-0.105323
-0.127180
0.030190
-0.076259
0.185856
0.201235
-0.109162
-0.010131
-0.093660
-0.124196
0.080865
0.172698
0.105718
-0.001048
-0.079787
0.161851
0.027532
-0.193068
0.185360
-0.169943
0.132776
-0.164206
-0.093382
0.078555
-0.022721
-0.158517
-0.119784
0.080626
-0.028500
0.097979
-0.104784
0.201462
-0.150095
-0.149120
-0.159692
-0.052300
0.133308
0.039271
0.158800
0.067720
0.075790
0.055416
0.040352
0.025489
0.016329
0.154034
-0.102191
-0.036379
0.107246
0.006210
0.097518
-0.020739
-0.089217
-0.138898
-0.044345
-0.146222
0.177761
0.061242
0.198742
0.174163
0.084741
0.196699
0.184858
0.017030
0.103683
0.146207
0.103107
-0.104909
0.048733
-0.185851
-0.180012
0.055669
-0.172262
0.123965
-0.123254
-0.091456
0.064478
0.123270
0.146449
0.104105
0.044576
0.176968
0.077607
-0.020313
0.144274
0.057207
-0.082658
0.066032
-0.071011
-0.041638
0.079830
0.107953
0.152640
0.147922
-0.085616
0.171138
-0.014835
-0.160916
0.209215
-0.095671
-0.041638
-0.107601
-0.083723
-0.124316
0.144630
-0.135743
-0.156030
-0.016564
-0.103802
-0.117998
0.163063
0.139805
0.055421
-0.029964
-0.151346
-0.142985
0.127990
-0.030046
-0.080341
0.052875
-0.111472
-0.153631
0.059127
0.144071
0.186839
-0.131168
-0.008935
-0.072941
0.193823
-0.060344
0.196211
0.213415
-0.076267
0.135782
-0.009456
-0.065946
-0.105636
-0.136130
0.130828
-0.178786
0.038868
0.079728
0.005696
-0.134887
-0.147432
0.193828
-0.144427
0.000465
0.095621
0.044286
-0.066320
0.034124
-0.078105
-0.182172
