0.129198
-0.018714
-0.046774
0.044201
-0.008672
0.131751
-0.041502
-0.044917
0.077829
0.071290
-0.015337
-0.013896
0.018689
0.129483
0.082340
0.126919
0.014873
0.027602
-0.057447
-0.035656
0.025151
-0.044659
-0.025076
-0.064438
0.082444
0.030870
0.069360
0.073059
0.066953
-0.040500
0.075306
-0.083282
-0.120394
0.048090
0.006112
-0.112677
0.017968
0.031303
-0.039048
-0.011466
0.062214
0.007530
0.027837
0.064996
-0.045471
-0.123487
0.018607
0.031098
-0.035219
0.050509
-0.040485
-0.084794
0.023071
0.016257
-0.001778
0.008328
0.009065
0.010611
0.130413
0.090856
0.111689
0.078576
-0.080955
0.109341
0.121491
0.099602
0.099923
0.059759
0.078278
0.113596
0.056098
-0.015781
-0.014883
0.044100
0.116686
-0.035500
0.111321
0.015233
-0.012660
-0.067855
0.011616
0.053151
-0.042159
-0.024707
-0.040189
0.028722
-0.019328
0.098083
0.089573
-0.105318
-0.058392
0.089065
-0.077741
0.058989
0.094667
-0.050412
0.047402
0.005196
0.060526
-0.018881
0.099964
0.084727
-0.090843
-0.030766
0.056777
0.072217
0.030109
0.056879
-0.037604
0.047396
-0.000643
0.050793
0.001364
-0.084245
0.024530
-0.017850
-0.004898
-0.082415
-0.096423
0.027768
-0.013286
0.056292
-0.095973
-0.022627
-0.069458
-0.002410
-0.023780
0.011957
0.000819
-0.078970
0.039348
-0.046344
-0.089439
0.069167
0.040661
-0.079373
-0.052947
-0.090790
0.068903
-0.076375
-0.022496
0.036490
-0.020569
-0.067096
-0.007151
0.080823
-0.055821
0.071627
0.025758
-0.005142
0.057928
-0.055912
-0.003210
0.050536
0.055023
0.066492
-0.051551
-0.022819
-0.035822
-0.092177
-0.082539
0.042147
0.060349
-0.020803
-0.071003
-0.023662
0.043486
-0.083263
0.017465
0.013760
-0.020092
0.042169
0.034244
0.053119
-0.028953
0.047049
-0.090113
-0.003901
0.087389
-0.081983
0.057308
0.019850
-0.024133
-0.082443
0.030141
-0.041438
-0.077726
0.047431
0.034522
-0.008023
-0.005165
-0.064369
0.027097
-0.077241
0.044258
0.055471
-0.059506
-0.058023
-0.079656
0.009088
0.013437
0.024688
-0.009981
-0.078566
-0.027708
0.015862
0.086960
-0.064123
0.040308
0.094501
-0.016173
-0.044958
0.018463
-0.069840
0.092495
-0.084718
-0.010883
0.124356
0.082179
-0.030547
0.012124
-0.011723
0.063360
-0.002315
0.059419
0.116197
0.044154
-0.031597
0.037361
0.131590
0.050091
-0.031874
0.128005
-0.012151
-0.001796
-0.096634
0.058987
0.037768
0.081484
-0.033596
0.008315
0.015670
0.029999
0.048091
-0.055346
0.038506
-0.028699
-0.033774
0.030979
-0.087860
-0.020793
0.088490
0.086584
0.062889
0.030553
0.005211
-0.005126
-0.029731
-0.002080
-0.092806
-0.008189
-0.055074
0.034101
0.052035
0.040525
0.013595
0.049624
0.064450
0.031664
0.147654
-0.019079
-0.025722
0.018434
0.021112
0.090453
-0.008657
-0.002184
0.081849
0.117332
-0.073400
-0.107646
-0.028729
0.032685
-0.056450
0.088680
-0.062847
0.100932
0.107339
0.080845
-0.044608
0.001193
0.007711
0.073985
-0.067826
0.026047
0.057921
-0.029271
0.057693
-0.070949
-0.089771
0.062129
0.048667
-0.100926
-0.057931
0.011863
-0.035937
-0.005056
-0.061083
0.078318
0.007551
-0.000142
0.095686
-0.032968
-0.080902
0.070112
0.025833
0.064785
0.093469
0.130192
0.122094
-0.002592
0.021018
0.098940
-0.037526
-0.060839
0.022401
0.052755
-0.102116
0.031983
-0.079099
-0.119556
-0.081912
-0.103821
0.021195
-0.066456
0.059924
0.004633
0.032870
0.022315
-0.036754
-0.112833
0.038671
0.002411
-0.012826
0.032970
-0.037199
-0.026906
0.075618
0.085781
0.100685
0.043437
0.083623
0.072565
0.079953
0.000858
0.031352
0.065641
-0.000400
0.011955
-0.059187
-0.065747
-0.006020
0.069251
0.063575
-0.001573
-0.078823
-0.009412
0.055198
0.008077
0.006427
0.122563
-0.028863
0.028250
0.127983
0.000833
0.098503
-0.047719
0.108141
0.006358
-0.067092
-0.015131
0.111721
0.032982
0.013715
0.061767
0.057649
-0.016714
-0.017255
-0.067420
0.140101
0.021960
0.110418
0.004919
0.076196
-0.003624
-0.019017
0.043787
0.000404
-0.013120
0.002215
-0.044648
-0.073380
-0.078199
0.075512
-0.020534
0.008790
-0.070720
0.050791
0.030859
-0.037821
0.086990
0.116390
-0.009961
0.060325
0.027067
0.062119
0.033738
0.025495
-0.093029
0.058483
-0.054381
0.087570
-0.072384
-0.001581
-0.004241
-0.065430
0.089566
-0.014176
0.137865
-0.049089
0.028167
-0.049911
0.027178
0.031213
-0.115833
-0.009675
-0.074157
-0.050790
-0.095408
0.009307
0.029505
0.010564
-0.083095
0.023275
-0.098502
-0.097255
-0.045912
-0.033547
-0.057825
-0.027803
0.061526
0.067150
0.054010
-0.108477
-0.101267
0.072943
-0.056239
0.001684
0.079930
-0.030253
0.031685
-0.077096
-0.057742
0.002563
-0.090591
0.045171
0.073390
0.053358
-0.011909
0.042620
0.061934
-0.048503
-0.043258
-0.003831
-0.020049
0.081588
0.023314
0.140067
0.009780
-0.008042
0.023183
0.141837
0.138548
0.120872
0.111358
-0.007446
0.071184
-0.014353
-0.016769
-0.000652
-0.075865
-0.023777
-0.042800
0.021395
-0.110027
-0.044258
-0.101199
0.032218
0.013652
0.002842
0.025775
-0.084001
-0.031705
-0.089607
0.077642
-0.020856
-0.071365
0.007741
0.086233
0.075016
-0.065456
0.070371
-0.061275
0.092628
-0.002891
-0.048217
0.056899
0.065175
-0.026099
-0.049104
0.016555
0.016014
0.093741
0.082852
-0.061160
0.076489
0.021884
0.039901
-0.041236
-0.022941
-0.015334
0.044818
0.070622
0.126394
0.092470
0.053818
0.137810
-0.000435
0.037668
-0.013438
0.084808
0.043972
0.095561
0.077774
0.061343
-0.054522
0.122072
-0.024402
0.029044
0.018780
-0.042621
0.063310
-0.046854
0.126017
0.107470
0.062800
0.131676
0.039595
0.033326
-0.061135
-0.023813
0.020231
0.022587
-0.090498
0.014342
0.075139
0.013269
-0.062707
0.054120
-0.072716
0.034135
-0.048060
0.003685
-0.011305
-0.064619
-0.025550
-0.075125
0.050653
0.032872
-0.035634
0.092234
0.059001
0.075677
0.006485
0.075740
0.053298
-0.130967
-0.112119
-0.007188
-0.032084
0.035630
0.032096
-0.054044
-0.037978
0.092865
-0.037884
0.082851
-0.040853
0.010317
0.030641
0.067808
0.016956
0.036535
0.146676
0.133926
-0.037661
0.037555
0.064929
-0.042964
0.010472
-0.048596
-0.016810
0.094696
0.011750
0.106884
0.012434
0.071632
0.021343
0.080600
0.048730
0.092046
-0.081504
0.066773
-0.027211
-0.099607
-0.042541
0.070788
-0.071494
-0.065191
0.015329
-0.050933
-0.094277
-0.077993
-0.023831
-0.046793
0.078230
-0.094944
-0.093743
0.001192
-0.035544
-0.031102
0.096121
-0.048084
0.077405
0.043064
-0.080318
-0.008756
-0.052930
-0.060113
-0.000468
-0.031693
0.008198
0.041196
-0.005684
0.077885
-0.016954
0.042555
-0.106835
-0.096756
0.018205
-0.104818
0.003357
-0.101530
0.033583
-0.046726
0.077660
0.086445
0.008150
-0.062676
0.095708
-0.016520
-0.098613
-0.027279
-0.099429
-0.048013
0.022966
-0.047836
-0.026319
0.029722
-0.035168
-0.066281
0.006023
-0.058960
0.051130
-0.092619
-0.055080
-0.090322
-0.064234
0.060734
0.058457
0.050018
-0.002010
0.090160
-0.026222
0.020102
-0.001142
0.057590
0.110395
0.088205
0.103805
-0.023847
-0.042199
0.078080
0.074853
-0.026458
-0.024934
0.106000
0.003409
-0.003194
-0.059152
0.079294
0.037272
-0.020199
-0.103286
0.033662
-0.032804
0.051941
0.045050
0.048606
-0.003229
-0.001692
0.030324
-0.021521
-0.034854
0.009783
-0.093743
0.018382
-0.035311
0.034574
0.073905
-0.076142
-0.009544
0.083541
0.095128
0.066533
0.077824
-0.078886
0.034091
-0.092012
-0.051680
-0.062803
0.047604
0.048542
-0.082123
0.028738
0.043643
-0.088877
0.058469
0.061351
0.110279
-0.030818
0.081397
-0.033516
0.061943
0.034572
0.027942
0.051182
0.015555
-0.094350
-0.078966
0.029787
-0.072576
-0.053460
-0.003804
0.028066
-0.095119
-0.023227
0.065560
-0.037934
-0.054252
0.054599
-0.092339
-0.093752
-0.085143
0.044643
-0.011443
0.000920
0.024746
-0.086039
-0.057287
0.035278
-0.058251
-0.081004
0.071157
0.042801
0.023284
0.088873
-0.040308
-0.089294
-0.087372
-0.093467
-0.050286
0.004119
0.030887
-0.088397
0.080142
0.054500
0.059892
0.033712
0.072954
0.020359
-0.011355
0.088789
-0.081057
-0.029633
-0.088171
0.025487
-0.092840
0.007282
0.020829
-0.030580
-0.036770
0.029649
-0.080495
0.001209
0.074624
-0.013835
0.050977
0.083139
-0.003938
0.013874
-0.010093
0.014125
0.028794
-0.025818
-0.033871
-0.024824
-0.084675
-0.013898
0.045753
0.077261
0.001277
0.028058
0.024915
0.036765
0.048974
0.053407
0.012978
-0.026540
-0.029652
-0.066465
-0.090932
-0.094868
0.038710
0.014318
0.007725
-0.060016
-0.011759
-0.048142
-0.046129
0.033813
-0.036879
-0.070192
0.093020
0.076057
0.058400
-0.034129
0.025623
-0.059579
0.007843
-0.013405
-0.058872
0.042943
-0.042990
0.100214
-0.036322
-0.036470
0.066721
-0.047783
0.017291
-0.039494
0.125456
0.069141
0.020437
-0.038662
-0.078229
0.055042
-0.019165
0.076124
-0.038409
-0.015586
-0.077800
-0.033862
-0.055506
0.007924
0.096832
-0.069280
-0.058889
0.069775
0.058571
-0.009633
0.064650
0.029825
-0.022557
0.022847
-0.040232
0.057789
-0.043976
0.015721
0.044684
0.016366
0.010199
0.041192
-0.088242
-0.029548
-0.070399
-0.023249
-0.012241
-0.056515
-0.039146
0.051055
0.100834
0.123516
0.089094
0.005356
0.136664
-0.017132
-0.020884
0.010210
-0.007016
-0.001557
-0.018857
0.077193
0.064302
0.067483
0.057152
0.005481
-0.015407
-0.116654
-0.016539
0.038620
0.016424
0.013754
-0.070293
-0.079984
0.009395
0.063506
-0.031229
0.101425
0.045177
-0.028915
-0.058521
0.093474
0.036774
-0.030017
-0.044221
0.028269
0.065327
-0.084710
-0.035477
0.031449
-0.090135
-0.095089
-0.049587
0.001402
-0.031244
-0.024603
0.094690
-0.056292
0.064796
-0.025859
0.077274
-0.046016
-0.000740
0.044869
0.043467
-0.008923
0.147880
0.148953
0.053504
-0.009847
0.101691
0.062835
-0.115704
-0.108417
-0.072392
0.031155
-0.071868
-0.127494
0.030034
-0.052074
0.067674
-0.062448
-0.048504
-0.117357
-0.089206
-0.010063
-0.083601
0.052119
-0.084975
0.056308
0.044863
0.020650
0.054932
-0.041901
0.011780
-0.009854
-0.038484
-0.009971
0.073906
0.059607
0.093307
0.067197
0.000197
-0.054114
-0.063009
0.018321
0.069603
-0.056181
-0.009382
-0.001425
-0.029587
-0.038864
0.010452
-0.010762
0.065799
-0.081188
0.119645
0.101259
0.030932
0.017745
-0.008233
-0.043271
0.096063
0.085549
0.031028
0.098964
-0.093203
-0.080946
0.069449
0.088237
0.077895
-0.032807
0.034306
0.032242
0.033622
-0.084421
-0.079752
-0.048953
0.007367
0.008573
-0.034070
-0.103714
-0.079447
-0.025557
-0.045025
-0.000684
-0.040055
0.097588
0.095618
-0.090735
-0.054539
0.050183
-0.051128
0.085287
0.085940
-0.080735
0.067969
0.080877
0.009179
0.056329
0.046106
-0.031469
-0.062315
-0.092531
-0.077665
0.047614
0.035189
0.004525
0.064865
0.028476
0.123757
0.025293
0.057661
0.036423
0.084704
-0.064012
0.060291
0.050106
0.017959
-0.103838
0.013698
-0.107015
-0.056257
-0.045379
-0.107996
0.036806
-0.013036
-0.039997
-0.037053
-0.105700
0.024953
0.020275
-0.040487
0.072615
0.019423
-0.060539
-0.074317
0.057476
0.087462
0.082798
0.026884
0.062877
0.062339
-0.039116
-0.050810
-0.032951
0.006819
0.039260
-0.077409
0.013739
-0.033931
-0.034056
0.004299
-0.067539
-0.062331
-0.056343
0.078429
-0.053804
0.004400
0.092516
-0.029772
0.015553
-0.020984
-0.054470
-0.073916
0.107059
0.057392
0.048242
0.039359
-0.036892
-0.054898
0.092610
0.090286
-0.002036
0.077580
0.132067
0.067148
0.122397
0.025623
-0.030949
-0.026881
0.110974
-0.067241
0.041814
0.020890
-0.119646
0.101073
0.118283
-0.028728
0.091757
0.099165
0.055233
-0.080524
-0.070448
0.089374
0.114212
-0.036954
0.114322
0.040164
-0.003432
0.036190
-0.053730
-0.024205
0.070606
-0.041436
0.102407
0.049445
0.005455
-0.071879
-0.061827
0.001975
0.050036
-0.041346
-0.035296
-0.042794
0.047259
-0.056547
0.027433
-0.079774
0.010368
0.119294
0.035425
0.118698
-0.028530
0.047941
0.086098
0.072407
0.059756
0.038680
0.058035
0.126003
-0.044545
0.120409
-0.042968
0.098426
0.028585
0.112374
0.130509
0.135825
-0.044727
0.082964
0.095054
0.020622
-0.024352
-0.024769
-0.048276
0.092214
0.021753
0.018612
-0.028711
-0.076999
-0.074633
-0.011278
0.105208
-0.085653
-0.034585
0.048508
-0.064869
-0.045380
-0.000198
0.073946
-0.000151
-0.058358
-0.040553
0.085227
-0.041648
0.028690
-0.054924
-0.048590
-0.071859
0.081884
0.053444
-0.016849
0.026014
0.030627
-0.123862
-0.063720
-0.000189
0.045296
-0.059210
-0.063594
0.081571
-0.027467
0.008791
-0.005542
-0.059644
0.132216
0.018980
-0.082738
0.016961
0.122387
0.131371
0.017033
0.076073
-0.026879
0.056090
-0.045765
0.058779
0.049399
-0.011574
0.065032
0.073323
0.111768
0.009959
0.112990
-0.014967
0.107283
-0.005058
0.037246
0.008121
-0.076767
0.072587
-0.076741
-0.084783
-0.007053
0.030375
0.023115
-0.044018
0.086524
-0.015502
0.027403
0.053508
0.069262
0.051866
-0.043681
-0.084403
-0.022106
0.014317
0.098327
0.022441
-0.055754
0.050429
-0.021585
0.019065
0.086930
-0.050822
-0.069422
0.005876
-0.063197
-0.044398
-0.009828
-0.045061
-0.126718
0.015547
0.061919
0.052291
-0.089116
0.031399
0.040871
0.061449
-0.088934
0.004103
-0.054248
0.106986
0.030722
-0.079024
-0.034952
0.010315
-0.002546
0.096769
0.027752
0.015245
0.077349
-0.058241
-0.002565
0.040605
0.061559
0.019592
0.045191
-0.066830
-0.012563
-0.071296
0.045303
0.003596
0.071311
0.073638
0.015049
-0.066867
0.001308
-0.001254
-0.066612
-0.074580
-0.053553
-0.089331
-0.028900
0.023186
-0.060686
-0.041400
-0.085545
0.099103
0.046489
-0.121547
0.048302
-0.126782
-0.051470
0.009685
0.010961
-0.020656
0.040070
0.062395
-0.049785
0.045330
-0.081869
-0.096824
0.055199
0.018935
-0.048956
0.070767
0.015990
-0.071407
-0.037474
0.024778
0.069266
0.084473
-0.038533
-0.090076
-0.068960
-0.047967
-0.043120
0.087875
0.035239
0.015573
-0.047122
-0.007012
0.093744
-0.053493
0.082241
0.044055
-0.051258
-0.080940
-0.057909
-0.094245
-0.011061
-0.016242
-0.080988
-0.014622
0.014559
-0.129585
0.038614
-0.090367
0.033033
-0.080836
0.052133
-0.021703
0.088833
-0.007551
0.020286
0.108218
-0.005326
-0.001161
0.003590
-0.021517
0.047296
0.100376
0.047236
0.113865
-0.029793
-0.003933
0.118395
0.145488
0.107469
-0.054648
-0.027210
0.058358
0.009796
0.071909
0.004997
0.019637
-0.067560
0.029569
-0.028135
0.066691
-0.075104
-0.032783
-0.037129
0.011531
-0.049843
0.052310
0.048928
0.030202
0.031674
0.092264
-0.061418
0.062183
0.089154
0.001623
-0.066711
-0.044059
-0.034998
0.090178
0.030187
-0.091527
0.102895
-0.102352
-0.095475
0.003244
-0.064688
0.100675
0.058286
0.017570
0.095307
0.129849
0.033237
-0.005806
-0.032544
0.056596
0.081854
0.068147
0.043832
-0.023071
0.004287
-0.036656
0.041203
-0.007798
0.014715
-0.017377
0.039908
-0.036021
0.114315
0.004076
-0.041669
0.016293
0.025527
0.021699
-0.086893
0.058368
0.091549
-0.102654
-0.033753
0.025179
-0.021120
-0.025551
-0.073870
-0.000105
0.052275
0.021357
0.019847
0.053776
-0.007850
-0.043069
-0.094744
-0.078113
0.135534
0.045924
-0.021965
-0.028785
0.031412
0.076803
0.062709
0.099661
-0.070318
-0.107327
0.024194
0.056529
0.031289
0.030664
0.045738
-0.081060
-0.060785
-0.123739
-0.050368
-0.037513
0.107665
0.066954
0.080258
-0.025404
0.005592
-0.035558
-0.041504
0.017184
0.019142
-0.015426
-0.029974
-0.069588
-0.025450
-0.021652
-0.079302
0.081746
0.068330
0.065396
-0.069100
0.093762
0.030077
0.044327
0.103185
0.052623
0.106000
0.045406
0.016453
-0.034454
-0.057272
-0.020216
0.004078
-0.095023
0.054845
0.012917
-0.108314
-0.139103
-0.079768
0.024937
-0.032923
-0.111048
-0.067083
-0.046272
0.091020
0.088349
0.004551
0.134889
0.039359
0.071404
0.007213
0.043316
0.130826
-0.010171
-0.005991
-0.040202
-0.041951
-0.013557
-0.008443
0.104122
0.128604
0.101531
0.124601
0.052414
0.034480
0.032267
-0.069270
-0.000095
-0.069624
-0.037086
0.077710
-0.045723
0.033174
0.088109
-0.065401
-0.022077
0.081282
0.002406
-0.011764
-0.002852
0.065431
0.079253
-0.089464
-0.082943
0.005732
0.048756
0.086528
-0.066936
-0.015643
0.082501
0.096455
-0.027106
0.071247
0.003777
0.137206
0.018618
0.053980
-0.051896
0.046890
-0.034527
-0.004332
-0.040222
0.041438
0.057617
-0.031134
0.010118
0.031746
-0.009236
-0.072450
-0.103886
-0.064042
-0.046693
0.070299
0.024464
-0.087671
-0.054694
0.072124
0.036815
-0.097605
0.026970
0.011194
0.000071
-0.019855
0.030837
-0.043816
-0.041220
0.050826
-0.010531
0.076503
-0.093290
-0.078932
0.063562
-0.073477
0.054537
-0.034426
-0.092230
-0.022738
-0.006062
0.064627
-0.048751
-0.047795
0.061132
-0.012837
-0.066651
0.055363
0.005635
-0.044645
0.054344
0.090809
-0.068516
0.090222
-0.012443
0.028258
0.080768
-0.004246
-0.041827
-0.021994
0.037236
0.019781
-0.001842
0.058840
0.032951
-0.020279
0.030990
0.054630
-0.017506
-0.038447
0.038383
0.048416
0.041976
-0.030734
-0.072817
0.021026
-0.081971
0.040410
-0.032481
0.011576
0.010795
0.044209
-0.069128
-0.016831
-0.013914
0.065095
-0.062173
-0.048853
0.085784
-0.092305
0.046850
-0.047110
0.066823
0.090020
0.065504
-0.078520
-0.037757
0.091651
0.048325
0.073035
0.033457
0.008573
0.025617
-0.038659
-0.024020
-0.027199
0.023509
-0.046591
0.061507
-0.054228
0.012282
0.115309
0.022439
0.030094
0.037201
0.137784
0.106879
0.078371
0.114816
0.027109
0.060051
0.073989
0.141008
-0.002198
0.057898
0.019533
0.010449
-0.039569
-0.065579
0.029127
-0.058337
0.105172
0.117456
0.004322
0.002097
0.091148
0.104365
-0.027460
-0.092654
-0.112604
-0.060127
-0.090078
-0.066224
0.079677
0.084553
-0.102133
0.059710
0.007436
-0.013316
-0.089185
-0.083048
-0.086744
0.079725
-0.050357
0.050842
-0.034510
-0.043695
-0.013499
-0.074932
0.044104
0.052776
0.041761
-0.018322
-0.067483
-0.043311
-0.001536
0.095777
0.081421
-0.046711
0.124197
-0.032493
0.045518
0.028713
-0.009704
-0.058695
0.061600
-0.023868
0.138570
0.007169
-0.007928
0.017064
0.138395
0.056800
0.100320
0.079750
0.102310
0.117744
0.081406
-0.032481
0.043813
0.034262
-0.065687
-0.062167
-0.077364
0.028562
-0.096576
-0.091618
0.013570
-0.047490
0.044994
-0.088084
0.044034
-0.031185
0.039366
0.002973
-0.082055
0.076649
-0.012613
0.007128
0.052240
-0.014190
0.057921
-0.036707
-0.045816
0.019993
-0.024087
0.076622
0.080358
-0.036915
-0.072707
0.020776
0.043811
0.004168
-0.094287
-0.102426
-0.074794
0.034194
-0.081296
-0.066646
-0.055192
0.002483
0.025539
-0.005300
-0.057817
0.008382
-0.004812
0.036708
0.055232
-0.029057
-0.039936
0.002291
0.031564
0.025561
0.036043
0.087751
0.083772
-0.039196
0.077658
-0.020436
0.049054
-0.051510
0.099069
0.061698
0.093378
-0.064994
-0.095874
0.044202
-0.011560
0.020741
-0.089334
0.068945
0.024679
-0.075426
0.048080
0.021907
0.104188
0.075321
-0.018488
0.127868
0.117343
0.062412
-0.047361
-0.041359
-0.037089
-0.098973
0.028718
-0.063474
-0.036462
0.013927
0.006546
0.042399
0.139607
0.097870
-0.073041
-0.044041
-0.053677
-0.027651
-0.032844
-0.056743
0.068621
-0.051683
-0.057994
0.005349
0.070612
-0.024283
-0.019509
-0.064768
-0.082085
0.100340
0.116968
0.009487
0.024553
-0.052819
0.094299
0.059538
-0.041769
0.043864
-0.010011
0.069261
-0.055120
-0.046193
-0.043011
0.010706
0.037501
-0.094037
-0.009003
-0.093504
0.106986
0.084925
0.025011
-0.015002
0.063825
0.012650
0.095561
0.017380
0.011592
-0.022919
-0.064014
-0.049408
0.069068
0.049605
-0.061300
-0.023656
-0.000238
0.002821
-0.086614
0.036058
0.090921
-0.045914
-0.040475
0.044618
-0.062067
-0.058654
0.053626
-0.054750
-0.094712
-0.078735
0.018534
-0.071126
0.050609
-0.042310
-0.057551
-0.001086
-0.063216
0.002406
0.033299
-0.002932
-0.043833
0.065511
-0.002528
-0.053023
-0.037481
-0.034930
0.091758
-0.058165
-0.037939
-0.019757
-0.031701
-0.083946
0.009872
0.016259
0.024225
-0.093908
0.002707
0.069323
0.062594
0.066999
0.013185
-0.017573
0.037478
0.081904
0.085614
0.008007
0.039109
-0.088449
0.040392
0.047983
0.000811
-0.024251
-0.039088
-0.035684
-0.060085
0.021098
0.091339
-0.029344
0.013459
0.090943
0.045869
-0.020073
0.013622
-0.003012
-0.045515
-0.028681
0.014018
0.075424
-0.080489
-0.016513
-0.040751
-0.032074
0.066615
-0.082072
0.022493
0.028970
-0.044590
0.078209
0.056477
0.026167
-0.024213
-0.010824
0.068079
-0.039096
0.001281
0.084005
0.076285
-0.032205
0.034284
0.006755
0.023764
-0.060681
0.038122
-0.016194
-0.033688
0.076674
-0.095541
-0.071536
-0.082668
-0.055583
-0.074467
-0.131684
-0.018686
-0.036045
-0.125084
-0.135511
0.007081
-0.088765
0.031678
-0.012890
-0.130372
-0.084321
-0.126491
-0.074504
-0.047399
0.002967
0.061530
-0.086624
-0.036243
-0.043584
0.009022
0.016252
-0.058940
-0.089164
-0.007095
-0.019562
-0.045790
0.000667
0.080350
0.117107
-0.056378
-0.044934
0.116637
0.092045
-0.058446
0.080774
-0.040492
-0.086390
0.025416
-0.008417
0.046074
-0.067645
0.148888
0.018870
0.104977
0.117871
0.089092
0.096183
0.039589
0.046396
0.062841
0.073760
0.001378
-0.052304
0.042330
0.118318
0.089818
0.019771
0.001391
0.044017
-0.066112
-0.018883
0.010695
0.038220
0.042640
-0.066637
-0.087720
-0.049339
-0.055650
0.052365
0.041186
0.080309
-0.019486
-0.004542
0.004758
0.078164
-0.008710
0.041744
0.040058
0.051670
-0.010597
0.097926
0.059676
0.063014
0.052190
0.103243
0.010109
-0.089924
-0.072152
-0.087532
-0.020675
0.013094
-0.034702
0.042984
-0.072224
-0.048112
0.065892
0.097245
-0.069827
0.119480
0.129953
0.023223
0.088993
0.091702
0.123338
0.018415
-0.094959
0.008062
-0.096777
-0.049291
-0.052428
-0.056005
-0.120959
-0.120940
-0.011451
0.058828
-0.026785
-0.040420
-0.035197
-0.064985
-0.053830
-0.104964
0.053797
-0.062315
-0.038644
0.026440
-0.076597
-0.083105
0.099396
0.023486
-0.035675
0.011320
-0.078069
0.044037
0.097758
0.004021
0.041285
0.047361
-0.007888
0.027349
0.074657
0.059067
0.048638
0.052046
0.082772
-0.046156
-0.025716
0.006573
-0.041349
0.085415
0.050884
0.053029
-0.046107
0.034482
0.139897
0.128801
0.137778
0.029005
0.003652
-0.044860
0.067831
-0.054062
-0.006349
0.103165
-0.041469
0.110704
-0.030588
-0.055324
-0.089073
-0.009710
-0.017996
-0.030460
0.028353
0.008947
-0.054821
-0.097492
0.068153
-0.019797
0.084297
0.015475
-0.067632
0.097411
-0.019243
-0.021127
-0.071405
0.060048
0.063362
0.069511
0.085273
-0.008916
0.075117
0.076730
-0.024723
-0.062119
-0.052262
0.008407
0.000817
-0.049193
0.013934
-0.056590
-0.028394
0.074053
-0.019193
-0.094749
0.109813
0.048876
0.130372
-0.044435
0.019597
0.133529
-0.023559
-0.020806
-0.022792
0.039835
-0.040993
-0.049077
-0.017619
-0.044899
0.013398
0.020131
-0.098449
-0.018731
0.021574
0.012397
0.014341
0.045539
0.061306
-0.020166
-0.064455
-0.097177
-0.122438
0.097637
0.054290
0.035353
0.082905
0.046679
-0.018986
0.050692
-0.026794
-0.020575
0.059359
0.089486
-0.005784
0.039968
0.065195
-0.006634
0.090722
0.029278
0.040738
0.047342
0.062129
-0.022037
0.040339
0.001315
-0.094062
-0.020217
-0.038853
0.064481
-0.017300
-0.039455
0.038786
0.086690
0.067107
0.069018
-0.028572
0.033407
-0.021161
0.072938
0.062258
-0.077760
-0.008245
0.041522
-0.050464
0.074276
-0.054321
0.067351
-0.021294
-0.004680
-0.029792
-0.101312
0.037928
-0.072929
0.014001
0.051164
0.030917
0.031855
0.051789
0.004714
-0.051494
-0.041101
-0.071467
0.072487
-0.068383
-0.068455
0.085681
0.040379
0.061669
0.022132
0.028031
-0.024134
0.031975
-0.075489
0.099985
-0.080664
0.056667
-0.006677
-0.010837
0.022959
-0.096073
0.044486
-0.047951
0.023324
-0.012280
-0.052863
0.019476
-0.027464
0.013861
-0.027475
0.047401
-0.066655
-0.099166
0.060396
0.040768
0.002475
-0.025134
-0.076498
-0.065326
0.062175
0.041557
0.033104
0.004569
-0.101140
-0.070839
-0.041555
-0.030869
-0.101660
-0.085630
-0.109907
-0.052211
0.076777
-0.091368
0.073795
0.028392
-0.080999
0.089511
-0.040976
0.100624
0.014069
-0.069362
-0.007015
0.084379
0.055719
0.057922
0.053172
0.095755
0.093215
0.001128
-0.091908
-0.050931
-0.018088
-0.020995
-0.035936
0.030200
-0.093874
0.037687
0.020031
0.008122
0.131949
-0.028591
0.061305
0.061978
0.129983
0.022276
0.058262
0.058396
-0.002778
0.072288
-0.001240
0.007127
0.093894
0.036550
-0.036571
0.017210
0.029118
-0.034384
0.050207
0.089044
0.041251
-0.073407
0.055294
0.123723
-0.011041
-0.054048
-0.013982
-0.037290
0.019640
0.011091
0.034854
-0.008313
0.017070
0.009013
-0.083443
0.108126
0.012359
-0.044841
0.064623
0.107898
-0.003560
-0.060541
-0.026018
0.063595
0.086229
0.002278
0.001851
0.025496
-0.028369
0.013036
-0.065824
-0.081986
-0.090203
0.039671
-0.014843
0.051950
0.036353
0.022594
0.040534
0.051047
0.111493
0.047156
-0.025140
-0.005042
0.047004
0.113390
0.035109
0.058813
0.036383
-0.002774
0.070938
0.098503
0.129960
0.033949
0.083240
-0.019001
0.089507
-0.035375
0.101638
0.102943
-0.058320
0.056344
0.074678
0.049976
0.026895
0.106833
-0.070362
0.016919
-0.071267
-0.066959
-0.057788
-0.087635
-0.067395
-0.099948
-0.092691
-0.002030
-0.090659
-0.045894
0.028215
0.010219
-0.068863
-0.009494
-0.018802
-0.000647
-0.040001
0.046245
-0.053497
0.044944
-0.127312
-0.106556
0.059260
0.028538
-0.096682
-0.007603
0.034370
0.031155
0.058884
-0.029092
-0.020698
0.071551
0.028087
-0.089889
0.106535
-0.005980
0.070685
-0.034625
-0.081895
-0.025023
0.012159
-0.038733
0.092449
-0.022401
-0.007869
-0.040577
-0.057429
-0.027085
0.060869
0.051650
0.029795
0.100272
0.098787
0.118045
-0.012379
0.077847
0.050539
0.054906
-0.082924
0.031395
-0.079513
0.030088
0.091211
-0.093072
-0.057714
-0.073659
0.081096
-0.018749
-0.012772
0.083293
0.075349
-0.049775
-0.066223
0.017381
0.003270
0.052117
0.104858
0.045070
-0.030945
0.086297
0.019118
0.055171
